{
"line_pt_pairs": [
[
[
-0.4054280565212711,
-0.6646841677660906,
-0.3053669650955347
],
[
0.29745577805363976,
1.2077014149002454,
-0.29411774661088763
]
],
[
[
-0.06867918076516227,
1.114746988869167,
-0.2502263062965133
],
[
0.9513342926239693,
-0.6047853238535877,
-0.30296281743419967
]
],
[
[
-0.7514539450069406,
-0.19071706124520948,
-0.2720578158225556
],
[
1.2463095372172213,
-0.2829272052213774,
-0.2511208045868235
]
],
[
[
0.8479734397316377,
-0.37287279558473796,
-0.638988251459502
],
[
0.061445824508881586,
0.31897614533827406,
1.064748627708086
]
],
[
[
0.1281897889208672,
0.9013846433361223,
-0.681788489845333
],
[
0.20653302901364795,
-0.03546541354531052,
1.083480415350989
]
],
[
[
-0.34266561880347146,
-0.3353495046822277,
-0.6571235126205867
],
[
0.40533374735153194,
0.3558208715446542,
1.0641494056750866
]
]
],
"contact_id_pairs": [
[
0,
2
],
[
0,
5
],
[
2,
5
],
[
0,
1
],
[
0,
4
],
[
1,
4
],
[
1,
2
],
[
1,
3
],
[
2,
3
],
[
3,
4
],
[
3,
5
],
[
4,
5
]
],
"coupler_pt_pairs": [
[
[
-0.23639356336751416,
-0.21439959386375146,
-0.30266167319466436
],
[
-0.23677421550967154,
-0.21447297248337133,
-0.26666385633977896
]
],
[
[
-0.22516589583816427,
-0.18449063625962675,
-0.3024819813609675
],
[
-0.19258071237609609,
-0.19666724646773448,
-0.31175278562875675
]
],
[
[
-0.18050050864158573,
-0.21707038036400883,
-0.2660740952176757
],
[
-0.17882510954661496,
-0.183956720746634,
-0.2800988194670919
]
],
[
[
0.1339562138387933,
0.7721611282279095,
-0.29673445541755655
],
[
0.13487240465631153,
0.771601003478206,
-0.2607502853729917
]
],
[
[
0.11202904399262364,
0.7137501722931014,
-0.29708538612931307
],
[
0.14490870066712325,
0.7014552888452175,
-0.30506964340197584
]
],
[
[
0.17670678939523038,
0.7010768602015187,
-0.2629131974857032
],
[
0.14642196222746784,
0.683359290042942,
-0.27097208023326325
]
],
[
[
0.745887801908069,
-0.258444919008059,
-0.29234086838303813
],
[
0.7454478529837721,
-0.2598090891749804,
-0.2563699478430955
]
],
[
[
0.720990458055373,
-0.21647313297524107,
-0.2910536314144676
],
[
0.6904969243253503,
-0.23435259833364697,
-0.2978704805030318
]
],
[
[
0.6759262494287681,
-0.2566002022720504,
-0.25709854990620695
],
[
0.6776110656825454,
-0.22301788168497177,
-0.2699577764039274
]
],
[
[
0.2210061817714093,
0.17862294978758425,
0.7191169424883208
],
[
0.19002935309709063,
0.1618900915738125,
0.711611369822188
]
],
[
[
0.23561671545405005,
0.16577116676176867,
0.6874683333642974
],
[
0.23578550018455624,
0.1991539930880713,
0.673990243250689
]
],
[
[
0.18705802050723713,
0.19742210559979867,
0.6446598240136026
],
[
0.21930505276311318,
0.18392564188876598,
0.6360659493121199
]
]
],
"nstatus": 0,
"opt_line_pos": [
[
-0.45144770763908115,
-0.30994754992462603,
-0.271234020933593
],
[
-0.05723795552087576,
0.588958668780062,
-0.2312625028172588
],
[
-0.431826067662921,
-0.3411093075530106,
-0.23508806473385482
],
[
0.4564368509146163,
-0.3526249189926915,
-0.24956263054475414
],
[
-0.08027830990595314,
0.5643203539092309,
-0.25133034874095067
],
[
-0.41490069846792377,
-0.3182950961466728,
-0.27160896292524905
]
],
"opt_line_orient": [
[
0.35144191728745544,
0.936192791333168,
0.00562460924232353
],
[
0.5100067366945658,
-0.8597661563613774,
-0.026368255568843195
],
[
0.998881741112081,
-0.04610507198808396,
0.01046850561786604
],
[
-0.393263807611378,
0.345924470461506,
0.8518684395837939
],
[
0.03917162004639038,
-0.4684250284407164,
0.882634452598161
],
[
0.37399968307750175,
0.34558518811344097,
0.8606364591478367
]
],
"opt_edge_ids": [
[
0,
1
],
[
1,
2
],
[
0,
2
],
[
2,
3
],
[
1,
3
],
[
0,
3
]
],
"opt_parameters": {
"length_deviation_ratio": 0.2,
"clamp_collision_dist": 0.024,
"max_tangent": null,
"clamp_gap": 0.016,
"collision_inds": [],
"shape_deviation": 0.2,
"bar_collision_distance": 0.07,
"contact_inds": [
0,
1,
0,
4,
1,
4,
0,
5,
0,
2,
5,
2,
3,
1,
3,
2,
1,
2,
3,
5,
3,
4,
5,
4
],
"opt_weights": [
1.0,
10.0,
0.0
],
"bar_available_lengths": [
1.0,
2.0
],
"num_unsuccessful_step_to_expand_trust_region": 5,
"opt_tol": 0.001,
"trust_region_lobnd": 1e-06,
"trust_region_upbnd": 1.0,
"contact_ignore_para_tol": 0.0001,
"line_para_tol": 0.0001,
"bigM": 1,
"pos_tol": 1e-06,
"duplicate_vertices_tol": 0.001,
"bar_contact_distance_tol": 0,
"bar_contact_distance": 0.018000000000000002,
"fixed_contact_pairs": [
[
0,
2
],
[
0,
5
],
[
2,
5
],
[
0,
1
],
[
0,
4
],
[
1,
4
],
[
1,
2
],
[
1,
3
],
[
2,
3
],
[
3,
4
],
[
3,
5
],
[
4,
5
]
],
"clamp_extension_length": 0.03,
"debug_mode": 0,
"clamp_t_bnd": 0.07,
"pos_devi": 0.19999999999999998,
"orient_devi": 0.2617993877991494,
"time_out": 300
}
}