{
"line_pt_pairs": [
[
[
0.25942536592313137,
1.165984368912121,
0.3781939356357099
],
[
0.235375373612619,
1.1570667409317235,
-0.12114770470792055
]
],
[
[
0.3036249667646616,
0.4207077503796821,
0.37767467063008286
],
[
0.2981261014971824,
0.3925294417395548,
-0.12150039425492506
]
],
[
[
0.2941623496359762,
1.3369823354814452,
0.2467516673913821
],
[
0.2635472575423855,
0.3381146991842824,
0.21033516983573958
]
],
[
[
0.27961130974007176,
1.336494500686372,
-0.015501386649015125
],
[
0.26222628752902943,
0.3366469776509851,
-0.013860751795364779
]
],
[
[
-0.43820073327405074,
1.3363849328825657,
0.02802464581821447
],
[
-0.47566798388311626,
0.3380349797282197,
-0.01549059482816903
]
],
[
[
-0.4256428806744007,
1.3354933466115315,
0.28369008771625226
],
[
-0.46766785439823244,
0.336444637620047,
0.27204626334623594
]
],
[
[
-0.49332955397593603,
0.49127211714257135,
0.4004630818349314
],
[
-0.5095878559082944,
0.4676112144918262,
-0.09871206708980049
]
],
[
[
-0.46150621474823117,
1.2104562273026618,
0.4010789395283374
],
[
-0.4851345938766338,
1.194247827323518,
-0.09809937277086558
]
],
[
[
-0.5737717545611333,
1.2381556299305596,
-0.005574060612898696
],
[
0.4233465363884854,
1.184474638481751,
-0.059178771327390134
]
],
[
[
0.4287321583074477,
0.43886542156859515,
-0.050240586977997354
],
[
-0.5701262195282344,
0.39111520274308936,
-0.048877638121225864
]
],
[
[
-0.5723729983461169,
0.4472714160074513,
0.23537178595520183
],
[
0.42746261889408554,
0.4499522774032006,
0.25330364252612436
]
],
[
[
0.42501471201182894,
1.2061113427636867,
0.19821579202423062
],
[
-0.5726177026025028,
1.165164867908155,
0.2534693123436056
]
]
],
"contact_pairs_coord": [
[
[
0,
1
],
[
0,
2
]
],
[
[
0,
1
],
[
0,
6
]
],
[
[
0,
2
],
[
0,
6
]
],
[
[
0,
1
],
[
1,
3
]
],
[
[
0,
1
],
[
4,
1
]
],
[
[
1,
3
],
[
4,
1
]
],
[
[
2,
3
],
[
0,
2
]
],
[
[
2,
3
],
[
7,
2
]
],
[
[
0,
2
],
[
7,
2
]
],
[
[
2,
3
],
[
1,
3
]
],
[
[
2,
3
],
[
3,
5
]
],
[
[
1,
3
],
[
3,
5
]
],
[
[
4,
5
],
[
6,
4
]
],
[
[
4,
5
],
[
4,
1
]
],
[
[
6,
4
],
[
4,
1
]
],
[
[
4,
5
],
[
7,
5
]
],
[
[
4,
5
],
[
3,
5
]
],
[
[
6,
7
],
[
6,
4
]
],
[
[
6,
7
],
[
0,
6
]
],
[
[
6,
4
],
[
0,
6
]
],
[
[
6,
7
],
[
7,
5
]
],
[
[
6,
7
],
[
7,
2
]
],
[
[
7,
5
],
[
7,
2
]
]
],
"coupler_pt_pairs": [
[
[
0.2528707922771618,
1.1635539627568838,
0.24210359872940895
],
[
0.2888149523311715,
1.1625147202979407,
0.24039096528131926
]
],
[
[
0.2512519788621378,
1.1629537140907522,
0.20849273783466232
],
[
0.24974433915436306,
1.1989176070650505,
0.20792307996535891
]
],
[
[
0.2899366278056089,
1.1991112239575972,
0.2417251925979709
],
[
0.28789118109884126,
1.2004832926638902,
0.2058103305442066
]
],
[
[
0.24056059911516425,
1.1589893990111588,
-0.013488667874847704
],
[
0.2765139900827949,
1.1583614301740994,
-0.015209090756554494
]
],
[
[
0.23886807305727298,
1.1583618180316504,
-0.04862999878090207
],
[
0.240763655839776,
1.1943041944515846,
-0.04936318316491542
]
],
[
[
0.27710718176135324,
1.1924770742780815,
-0.015265070606963888
],
[
0.27517326739584014,
1.1924517140784299,
-0.051213031161890965
]
],
[
[
0.3018077513087773,
0.41139563679065577,
0.2127117921129788
],
[
0.2658267303612998,
0.4124862418101246,
0.21304659125117686
]
],
[
[
0.30225250079291954,
0.4136747048569011,
0.2530851858597306
],
[
0.3021925063326979,
0.4496163903803578,
0.25105694751712426
]
],
[
[
0.26700140858684196,
0.45081204723217205,
0.2144438650728054
],
[
0.2663597494997757,
0.4495203119322207,
0.25041429401990006
]
],
[
[
0.29930674062261403,
0.3985794924410651,
-0.014324534622834811
],
[
0.2633140418897707,
0.3992059143066586,
-0.013963403819318404
]
],
[
[
0.2989351870253823,
0.39667550835891907,
-0.04805336447857131
],
[
0.2972161206886804,
0.4325783245038773,
-0.05006113247564037
]
],
[
[
0.26386756526423816,
0.43104015461910045,
-0.014015640148351383
],
[
0.2638212285255252,
0.430981888568785,
-0.050015564924618366
]
],
[
[
-0.4434346177021177,
1.1969231845921366,
0.02194590407174679
],
[
-0.47937374318539905,
1.198199608007087,
0.02360562061150169
]
],
[
[
-0.4422106293696374,
1.229537499080894,
0.02336746946473449
],
[
-0.4440534136371581,
1.2311720962685087,
-0.012547670667700905
]
],
[
[
-0.48093653212171017,
1.1971275789853304,
-0.009410200722173662
],
[
-0.4790696870967146,
1.233057236971686,
-0.010665208751059668
]
],
[
[
-0.4706936340814659,
0.47058118503343005,
-0.009713281970691018
],
[
-0.5066529977695798,
0.47188234889459335,
-0.008603748609748968
]
],
[
[
-0.47356191184142904,
0.39415324007501407,
-0.013044559151068502
],
[
-0.4736861474598989,
0.3957255005060102,
-0.049009231236815776
]
],
[
[
-0.43112548863615585,
1.2051567414754358,
0.2821710261074135
],
[
-0.4670564548849404,
1.2066489195043906,
0.28382335084653065
]
],
[
[
-0.4325906405053792,
1.1703260692888644,
0.28176507770271614
],
[
-0.4346018140542093,
1.1708295436216956,
0.24582535090992685
]
],
[
[
-0.46882120264412297,
1.2054383524406198,
0.24654090319003175
],
[
-0.46728504939244375,
1.1694881043757666,
0.2476355004012725
]
],
[
[
-0.46146854424236794,
0.48381921656813714,
0.2737639010334003
],
[
-0.49742036508311627,
0.4853187104601098,
0.2748637878775797
]
],
[
[
-0.4630100247311254,
0.4471740040726118,
0.27333680432183904
],
[
-0.462365566300734,
0.4475663791721263,
0.2373447477692831
]
],
[
[
-0.49871901579708644,
0.48342876843243643,
0.23499159419805155
],
[
-0.4986531282038469,
0.4474690812541741,
0.23669393743192868
]
]
],
"nstatus": 0,
"opt_line_pos": [
[
-0.05000000074505806,
0.327248770552604,
0.08621299129210405
],
[
-0.0004453393322627334,
-0.42500076833060646,
0.06492933211343928
],
[
-0.012526171745574098,
0.35401986692371246,
0.09972894077580464
],
[
-0.025402688101870654,
0.33778337422508126,
-0.1569011470249278
],
[
-0.7469665844981317,
0.32499999925494194,
-0.12128432191638686
],
[
-0.7351501903814324,
0.32538793076892464,
0.13999483420492498
],
[
-0.8000000007450581,
-0.35130573037502,
0.12110280229246788
],
[
-0.7720154699673433,
0.36869534714338337,
0.08356743729803469
],
[
-0.7988129151893526,
0.3979512952017507,
-0.15138799025386565
],
[
-0.04999910272031379,
-0.40562547174444685,
-0.19166635608687088
],
[
-0.7496586879702734,
-0.3884448593768907,
0.09594517693935183
],
[
-0.04350423268934987,
0.3632332501200091,
0.06576143251202582
]
],
"opt_line_orient": [
[
-0.04809998462102473,
-0.017835255960795323,
-0.9986832806872608
],
[
-0.010997730534958486,
-0.05635661728025463,
-0.9983501297700158
],
[
-0.03061509209359072,
-0.9988676362971628,
-0.03641649755564256
],
[
-0.017385022211042295,
-0.9998475230353869,
0.0016406348536503494
],
[
-0.037467250609065514,
-0.998349953154346,
-0.0435152406463835
],
[
-0.0420249737238317,
-0.9990487089914843,
-0.011643824370016253
],
[
-0.0325166038647166,
-0.04732180530149035,
-0.9983502978494638
],
[
-0.047256758256805295,
-0.03241679995828773,
-0.9983566245984059
],
[
0.9971182909496187,
-0.053680991448808654,
-0.053604710714491445
],
[
-0.998858377835682,
-0.04775021882550577,
0.0013629488567715098
],
[
0.9998356172402024,
0.0026808613957492707,
0.017931856570922524
],
[
-0.9976324146143316,
-0.04094647485553171,
0.05525352031937495
]
],
"opt_edges_coord": [
[
0,
1
],
[
2,
3
],
[
0,
2
],
[
1,
3
],
[
4,
5
],
[
6,
7
],
[
7,
5
],
[
6,
4
],
[
4,
1
],
[
3,
5
],
[
7,
2
],
[
0,
6
]
],
"opt_parameters": {
"length_deviation_ratio": 0.2,
"clamp_collision_dist": 0.009999999776482582,
"max_tangent": -1,
"clamp_gap": 0.016,
"collision_inds": [],
"shape_deviation": 0.2,
"bar_collision_distance": 0.019999999552965164,
"layer_range": [
-1,
-1
],
"bar_available_lengths": [
0.5,
1.0,
1.5
],
"opt_weights": [
1.0,
10.0,
0.0
],
"layers": [
[
0,
1,
2,
3,
4,
5,
6,
7,
8,
9,
10,
17
],
[
11,
12,
13,
14,
15,
16,
18,
19
]
],
"num_unsuccessful_step_to_expand_trust_region": 10,
"opt_tol": 0.001,
"trust_region_lobnd": 1e-06,
"trust_region_upbnd": 1.0,
"contact_ignore_para_tol": 0.001,
"line_para_tol": 0.01,
"bigM": 1,
"pos_tol": 1e-06,
"duplicate_vertices_tol": 0.001,
"bar_contact_distance_tol": 0,
"bar_contact_distance": 0.018000000000000002,
"fixed_contact_pairs_coord": [
[
[
0,
1
],
[
0,
2
]
],
[
[
0,
1
],
[
0,
6
]
],
[
[
0,
2
],
[
0,
6
]
],
[
[
0,
1
],
[
1,
3
]
],
[
[
0,
1
],
[
4,
1
]
],
[
[
1,
3
],
[
4,
1
]
],
[
[
2,
3
],
[
0,
2
]
],
[
[
2,
3
],
[
7,
2
]
],
[
[
0,
2
],
[
7,
2
]
],
[
[
2,
3
],
[
1,
3
]
],
[
[
2,
3
],
[
3,
5
]
],
[
[
1,
3
],
[
3,
5
]
],
[
[
4,
5
],
[
6,
4
]
],
[
[
4,
5
],
[
4,
1
]
],
[
[
6,
4
],
[
4,
1
]
],
[
[
4,
5
],
[
7,
5
]
],
[
[
4,
5
],
[
3,
5
]
],
[
[
6,
7
],
[
6,
4
]
],
[
[
6,
7
],
[
0,
6
]
],
[
[
6,
4
],
[
0,
6
]
],
[
[
6,
7
],
[
7,
5
]
],
[
[
6,
7
],
[
7,
2
]
],
[
[
7,
5
],
[
7,
2
]
]
],
"clamp_extension_length": 0.03,
"debug_mode": 0,
"clamp_t_bnd": 0.10000000149011612,
"pos_devi": 0.05000000074505806,
"orient_devi": 0.05745329335331917,
"time_out": 300,
"contactopt_trust_region_start": 0.10000000149011612
}
}