{
"line_pt_pairs": [
[
[
0.25942536592313137,
1.165984368912121,
0.3781939356357099
],
[
0.235375373612619,
1.1570667409317235,
-0.12114770470792055
]
],
[
[
0.3036249667646616,
0.4207077503796821,
0.37767467063008286
],
[
0.2981261014971824,
0.3925294417395548,
-0.12150039425492506
]
],
[
[
0.2941623496359762,
1.3369823354814452,
0.2467516673913821
],
[
0.2635472575423855,
0.3381146991842824,
0.21033516983573958
]
],
[
[
0.27961130974007176,
1.336494500686372,
-0.015501386649015125
],
[
0.26222628752902943,
0.3366469776509851,
-0.013860751795364779
]
],
[
[
-0.43820073327405074,
1.3363849328825657,
0.02802464581821447
],
[
-0.47566798388311626,
0.3380349797282197,
-0.01549059482816903
]
],
[
[
-0.4256428806744007,
1.3354933466115315,
0.28369008771625226
],
[
-0.46766785439823244,
0.336444637620047,
0.27204626334623594
]
],
[
[
-0.49332955397593603,
0.49127211714257135,
0.4004630818349314
],
[
-0.5095878559082944,
0.4676112144918262,
-0.09871206708980049
]
],
[
[
-0.46150621474823117,
1.2104562273026618,
0.4010789395283374
],
[
-0.4851345938766338,
1.194247827323518,
-0.09809937277086558
]
],
[
[
-0.5737717545611333,
1.2381556299305596,
-0.005574060612898696
],
[
0.42334653638848563,
1.184474638481751,
-0.05917877132739016
]
],
[
[
0.4287321583074476,
0.43886542156859515,
-0.050240586977997354
],
[
-0.5701262195282345,
0.39111520274308936,
-0.048877638121225864
]
],
[
[
-0.5723729983461169,
0.4472714160074513,
0.23537178595520183
],
[
0.42746261889408554,
0.4499522774032006,
0.25330364252612436
]
],
[
[
0.42501471201182894,
1.2061113427636867,
0.19821579202423062
],
[
-0.5726177026025028,
1.165164867908155,
0.2534693123436056
]
],
[
[
1.059954206381466,
1.3376156940274746,
-0.0010645102613168755
],
[
1.0707676136359843,
0.3384807631539713,
-0.04121995985346802
]
],
[
[
1.0534072829156471,
0.44726012587756286,
0.4005513256576809
],
[
1.030871469661183,
0.4365810573245845,
-0.09882638170999952
]
],
[
[
1.04663879814029,
1.2577786682680367,
0.39977172094070046
],
[
1.0197424074209867,
1.247733302115965,
-0.09940327320979322
]
],
[
[
1.1797286565785456,
1.1713673571405614,
0.029121886820799414
],
[
0.1810687605050405,
1.120428131249565,
0.019978187346186504
]
],
[
[
0.17727192553521354,
0.477169514169283,
0.022408571442681754
],
[
1.17725266210982,
0.47473318749101534,
0.016699736883473107
]
],
[
[
1.1785740510506102,
0.41538092245466723,
0.30227208147757234
],
[
0.18157688152546902,
0.36600091263152934,
0.24262094076154295
]
],
[
[
1.000114551178766,
1.3337010388859905,
0.2200595154794413
],
[
1.012102528044511,
0.3345311277191684,
0.2589924967363576
]
],
[
[
1.1781724110069232,
1.2139650483556763,
0.27385839709520615
],
[
0.18162718544863965,
1.2500964944200552,
0.19907783797529283
]
]
],
"contact_pairs_coord": [
[
[
0,
1
],
[
0,
2
]
],
[
[
0,
1
],
[
0,
6
]
],
[
[
0,
2
],
[
0,
6
]
],
[
[
0,
2
],
[
11,
0
]
],
[
[
0,
1
],
[
1,
3
]
],
[
[
0,
1
],
[
4,
1
]
],
[
[
0,
1
],
[
8,
1
]
],
[
[
1,
3
],
[
4,
1
]
],
[
[
1,
3
],
[
8,
1
]
],
[
[
2,
3
],
[
0,
2
]
],
[
[
2,
3
],
[
7,
2
]
],
[
[
0,
2
],
[
7,
2
]
],
[
[
0,
2
],
[
10,
2
]
],
[
[
2,
3
],
[
1,
3
]
],
[
[
2,
3
],
[
3,
5
]
],
[
[
1,
3
],
[
3,
5
]
],
[
[
1,
3
],
[
3,
9
]
],
[
[
4,
5
],
[
6,
4
]
],
[
[
4,
5
],
[
4,
1
]
],
[
[
6,
4
],
[
4,
1
]
],
[
[
4,
5
],
[
7,
5
]
],
[
[
4,
5
],
[
3,
5
]
],
[
[
6,
7
],
[
6,
4
]
],
[
[
6,
7
],
[
0,
6
]
],
[
[
6,
4
],
[
0,
6
]
],
[
[
6,
7
],
[
7,
5
]
],
[
[
6,
7
],
[
7,
2
]
],
[
[
7,
5
],
[
7,
2
]
],
[
[
8,
9
],
[
11,
8
]
],
[
[
8,
9
],
[
8,
1
]
],
[
[
8,
9
],
[
10,
9
]
],
[
[
10,
9
],
[
3,
9
]
],
[
[
10,
9
],
[
10,
2
]
],
[
[
10,
9
],
[
11,
10
]
],
[
[
10,
2
],
[
11,
10
]
],
[
[
11,
8
],
[
11,
10
]
],
[
[
11,
8
],
[
11,
0
]
],
[
[
11,
10
],
[
11,
0
]
]
],
"coupler_pt_pairs": [
[
[
0.2528707922771618,
1.1635539627568838,
0.24210359872940895
],
[
0.2888149523311715,
1.1625147202979407,
0.24039096528131926
]
],
[
[
0.2512519788621378,
1.1629537140907522,
0.20849273783466232
],
[
0.24974433915436306,
1.1989176070650505,
0.20792307996535891
]
],
[
[
0.2899366278056089,
1.1991112239575972,
0.2417251925979709
],
[
0.28789118109884126,
1.2004832926638902,
0.2058103305442066
]
],
[
[
0.2913368422594658,
1.244795519061383,
0.24339074062508043
],
[
0.2940732730639595,
1.2460195698153067,
0.2075157704314035
]
],
[
[
0.24056059911516425,
1.1589893990111588,
-0.013488667874847704
],
[
0.2765139900827949,
1.1583614301740994,
-0.015209090756554494
]
],
[
[
0.23886807305727298,
1.1583618180316504,
-0.04862999878090207
],
[
0.240763655839776,
1.1943041944515846,
-0.04936318316491539
]
],
[
[
0.2421735497546234,
1.1595874737867236,
0.020000466246363202
],
[
0.24400216282147247,
1.1236382118879185,
0.020554403653618977
]
],
[
[
0.27710718176135324,
1.1924770742780815,
-0.015265070606963888
],
[
0.27517326739584014,
1.1924517140784299,
-0.051213031161890965
]
],
[
[
0.27593713434720846,
1.125185298940367,
-0.015154652538768937
],
[
0.275604225826624,
1.1252501566875148,
0.020843751176267078
]
],
[
[
0.3018077513087773,
0.41139563679065577,
0.2127117921129788
],
[
0.2658267303612998,
0.4124862418101246,
0.21304659125117686
]
],
[
[
0.30225250079291954,
0.4136747048569011,
0.2530851858597306
],
[
0.3021925063326979,
0.4496163903803578,
0.25105694751712426
]
],
[
[
0.26700140858684196,
0.45081204723217205,
0.2144438650728054
],
[
0.2663597494997757,
0.4495203119322207,
0.25041429401990006
]
],
[
[
0.2645629470179514,
0.37125323564757295,
0.21154332734155945
],
[
0.2624756416795925,
0.3700077259838611,
0.2474611785006374
]
],
[
[
0.29930674062261403,
0.3985794924410651,
-0.014324534622834811
],
[
0.2633140418897707,
0.3992059143066586,
-0.013963403819318404
]
],
[
[
0.2989351870253823,
0.39667550835891907,
-0.04805336447857131
],
[
0.2972161206886804,
0.4325783245038773,
-0.05006113247564037
]
],
[
[
0.26386756526423816,
0.43104015461910045,
-0.014015640148351383
],
[
0.2638212285255252,
0.430981888568785,
-0.050015564924618366
]
],
[
[
0.2646649716427587,
0.47690059602308016,
-0.014090891861075289
],
[
0.26487062523976695,
0.4769560910089501,
0.021908475324902407
]
],
[
[
-0.4434346177021177,
1.1969231845921366,
0.02194590407174679
],
[
-0.47937374318539905,
1.198199608007087,
0.02360562061150169
]
],
[
[
-0.4422106293696374,
1.229537499080894,
0.02336746946473449
],
[
-0.4440534136371581,
1.2311720962685087,
-0.012547670667700905
]
],
[
[
-0.48093653212171017,
1.1971275789853304,
-0.009410200722173662
],
[
-0.4790696870967146,
1.233057236971686,
-0.010665208751059668
]
],
[
[
-0.4706936340814659,
0.47058118503343005,
-0.009713281970691018
],
[
-0.5066529977695798,
0.47188234889459335,
-0.008603748609748968
]
],
[
[
-0.47356191184142904,
0.3941532400750142,
-0.013044559151068502
],
[
-0.4736861474598987,
0.3957255005060102,
-0.049009231236815776
]
],
[
[
-0.43112548863615585,
1.2051567414754358,
0.2821710261074135
],
[
-0.4670564548849404,
1.2066489195043906,
0.28382335084653065
]
],
[
[
-0.4325906405053792,
1.1703260692888644,
0.28176507770271614
],
[
-0.4346018140542094,
1.1708295436216956,
0.24582535090992685
]
],
[
[
-0.46882120264412297,
1.2054383524406198,
0.24654090319003172
],
[
-0.467285049392444,
1.1694881043757666,
0.2476355004012725
]
],
[
[
-0.46146854424236794,
0.48381921656813714,
0.2737639010334003
],
[
-0.49742036508311627,
0.4853187104601098,
0.2748637878775797
]
],
[
[
-0.4630100247311254,
0.4471740040726118,
0.27333680432183904
],
[
-0.462365566300734,
0.4475663791721263,
0.2373447477692831
]
],
[
[
-0.49871901579708644,
0.48342876843243643,
0.23499159419805155
],
[
-0.4986531282038469,
0.4474690812541741,
0.23669393743192868
]
],
[
[
1.0609008499576893,
1.2501479198255354,
-0.004579859078951504
],
[
1.0249565144491217,
1.2496806866107968,
-0.0026337150771713613
]
],
[
[
1.061803039163933,
1.1667876311581082,
-0.007930127162007694
],
[
1.061547579019476,
1.1653392262128128,
0.028039824488032522
]
],
[
[
1.0696863348111307,
0.43838853676285244,
-0.03720464476133317
],
[
1.0337259953521873,
0.43793373429240745,
-0.035572108207646835
]
],
[
[
1.0361561408375948,
0.439085309784241,
0.018278199627700137
],
[
1.0362394139832345,
0.4750767484475762,
0.017504773695450976
]
],
[
[
1.0485947538405989,
0.444979607871608,
0.2939090798686665
],
[
1.0503340233115195,
0.4090293559477213,
0.29459937770877886
]
],
[
[
1.0467534214922958,
0.4441070538548387,
0.25310645534321646
],
[
1.0107922573329224,
0.44373913547262833,
0.25473717111911054
]
],
[
[
1.0090334805369552,
0.40698379225882914,
0.2921283330920049
],
[
1.0112497125151108,
0.40561131299944175,
0.2562228341491172
]
],
[
[
1.0370185473367362,
1.254185660462454,
0.22122774124071298
],
[
1.001072837206669,
1.2538301335534658,
0.2231717113387549
]
],
[
[
1.0392441799990348,
1.2550168982016037,
0.2625336615323399
],
[
1.0378803705564967,
1.219051575452283,
0.2633309097761243
]
],
[
[
1.0014895204883207,
1.2191005538941844,
0.2245249607298984
],
[
0.998846861904556,
1.220466801852842,
0.26040184290937085
]
]
],
"nstatus": 0,
"opt_line_pos": [
[
-0.05000000074505806,
0.327248770552604,
0.08621299129210405
],
[
-0.0004453393322627334,
-0.42500076833060646,
0.06492933211343928
],
[
-0.012526171745574098,
0.35401986692371246,
0.09972894077580464
],
[
-0.025402688101870654,
0.33778337422508126,
-0.1569011470249278
],
[
-0.7469665844981317,
0.32499999925494194,
-0.12128432191638686
],
[
-0.7351501903814324,
0.32538793076892464,
0.13999483420492498
],
[
-0.8000000007450581,
-0.35130573037502,
0.12110280229246788
],
[
-0.7720154699673433,
0.36869534714338337,
0.08356743729803469
],
[
-0.7988129151893526,
0.3979512952017507,
-0.15138799025386565
],
[
-0.04999910272031379,
-0.40562547174444685,
-0.19166635608687088
],
[
-0.7496586879702734,
-0.3884448593768907,
0.09594517693935183
],
[
-0.04350423268934987,
0.3632332501200091,
0.06576143251202582
],
[
0.7596669946310141,
0.32614659089930526,
-0.14978126170577297
],
[
0.7438641203042495,
-0.3922775231466547,
0.09584891843957169
],
[
0.7352056997424279,
0.4182737520263061,
0.08648127451625304
],
[
0.7310449305007485,
0.3278436780553883,
-0.11388611111365801
],
[
-0.05000000074505806,
-0.3590641739240317,
-0.11968577391503801
],
[
0.7889693212360481,
-0.42500000074505795,
0.1553750652807965
],
[
0.6999999992549419,
0.32502287035607125,
0.08511931607228526
],
[
0.7000245613100256,
0.3842936852573077,
0.1189875665511069
]
],
"opt_line_orient": [
[
-0.04809998462102473,
-0.017835255960795323,
-0.9986832806872608
],
[
-0.010997730534958486,
-0.05635661728025463,
-0.9983501297700158
],
[
-0.03061509209359072,
-0.9988676362971628,
-0.03641649755564256
],
[
-0.017385022211042295,
-0.9998475230353869,
0.0016406348536503494
],
[
-0.037467250609065514,
-0.998349953154346,
-0.0435152406463835
],
[
-0.0420249737238317,
-0.9990487089914843,
-0.011643824370016253
],
[
-0.0325166038647166,
-0.04732180530149035,
-0.9983502978494638
],
[
-0.047256758256805295,
-0.03241679995828773,
-0.9983566245984059
],
[
0.9971182909496188,
-0.05368099144880866,
-0.05360471071449145
],
[
-0.9988583778356821,
-0.04775021882550578,
0.00136294885677151
],
[
0.9998356172402024,
0.0026808613957492707,
0.017931856570922524
],
[
-0.9976324146143317,
-0.04094647485553172,
0.05525352031937496
],
[
0.010813407254518327,
-0.9991349308735034,
-0.04015544959215112
],
[
-0.045071626508928375,
-0.02135813710595663,
-0.9987554147353609
],
[
-0.0537927814386068,
-0.020090732304143315,
-0.9983499883009873
],
[
-0.9986598960735051,
-0.05093922589099629,
-0.00914369947461291
],
[
0.9999807365746064,
-0.0024363266782676395,
-0.005708834559208649
],
[
-0.9969971695251413,
-0.04938000982313788,
-0.0596511407160294
],
[
0.011987976865745176,
-0.9991699111668222,
0.03893298125691625
],
[
-0.9965452255582835,
0.036131446064378986,
-0.07478055911991331
]
],
"opt_edges_coord": [
[
0,
1
],
[
2,
3
],
[
0,
2
],
[
1,
3
],
[
4,
5
],
[
6,
7
],
[
7,
5
],
[
6,
4
],
[
4,
1
],
[
3,
5
],
[
7,
2
],
[
0,
6
],
[
8,
9
],
[
10,
9
],
[
11,
8
],
[
8,
1
],
[
3,
9
],
[
10,
2
],
[
11,
10
],
[
11,
0
]
],
"opt_parameters": {
"length_deviation_ratio": 0.2,
"clamp_collision_dist": 0.009999999776482582,
"max_tangent": -1,
"clamp_gap": 0.016,
"collision_inds": [],
"shape_deviation": 0.2,
"bar_collision_distance": 0.019999999552965164,
"layer_range": [
-1,
-1
],
"bar_available_lengths": [
0.5,
1.0,
1.5
],
"opt_weights": [
1.0,
10.0,
0.0
],
"layers": [
[
0,
1,
2,
3,
4,
5,
6,
7,
8,
9,
10,
17
],
[
11,
12,
13,
14,
15,
16,
18,
19
]
],
"num_unsuccessful_step_to_expand_trust_region": 10,
"opt_tol": 0.001,
"trust_region_lobnd": 1e-06,
"trust_region_upbnd": 1.0,
"contact_ignore_para_tol": 0.001,
"line_para_tol": 0.01,
"bigM": 1,
"pos_tol": 1e-06,
"duplicate_vertices_tol": 0.001,
"bar_contact_distance_tol": 0,
"bar_contact_distance": 0.018000000000000002,
"fixed_contact_pairs_coord": [
[
[
0,
1
],
[
0,
2
]
],
[
[
0,
1
],
[
0,
6
]
],
[
[
0,
2
],
[
0,
6
]
],
[
[
0,
2
],
[
11,
0
]
],
[
[
0,
1
],
[
1,
3
]
],
[
[
0,
1
],
[
4,
1
]
],
[
[
0,
1
],
[
8,
1
]
],
[
[
1,
3
],
[
4,
1
]
],
[
[
1,
3
],
[
8,
1
]
],
[
[
2,
3
],
[
0,
2
]
],
[
[
2,
3
],
[
7,
2
]
],
[
[
0,
2
],
[
7,
2
]
],
[
[
0,
2
],
[
10,
2
]
],
[
[
2,
3
],
[
1,
3
]
],
[
[
2,
3
],
[
3,
5
]
],
[
[
1,
3
],
[
3,
5
]
],
[
[
1,
3
],
[
3,
9
]
],
[
[
4,
5
],
[
6,
4
]
],
[
[
4,
5
],
[
4,
1
]
],
[
[
6,
4
],
[
4,
1
]
],
[
[
4,
5
],
[
7,
5
]
],
[
[
4,
5
],
[
3,
5
]
],
[
[
6,
7
],
[
6,
4
]
],
[
[
6,
7
],
[
0,
6
]
],
[
[
6,
4
],
[
0,
6
]
],
[
[
6,
7
],
[
7,
5
]
],
[
[
6,
7
],
[
7,
2
]
],
[
[
7,
5
],
[
7,
2
]
],
[
[
8,
9
],
[
11,
8
]
],
[
[
8,
9
],
[
8,
1
]
],
[
[
8,
9
],
[
10,
9
]
],
[
[
10,
9
],
[
3,
9
]
],
[
[
10,
9
],
[
10,
2
]
],
[
[
10,
9
],
[
11,
10
]
],
[
[
10,
2
],
[
11,
10
]
],
[
[
11,
8
],
[
11,
10
]
],
[
[
11,
8
],
[
11,
0
]
],
[
[
11,
10
],
[
11,
0
]
]
],
"clamp_extension_length": 0.03,
"debug_mode": 0,
"clamp_t_bnd": 0.10000000149011612,
"pos_devi": 0.05000000074505806,
"orient_devi": 0.05745329335331917,
"time_out": 300,
"contactopt_trust_region_start": 0.10000000149011612
}
}